Language model created by QuickLM on Tue May 15 15:51:18 EDT 2018
Copyright (c) 1996-2010 Carnegie Mellon University and Alexander I. Rudnicky

The model is in standard ARPA format, designed by Doug Paul while he was at MITRE.

The code that was used to produce this language model is available in Open Source.
Please visit http://www.speech.cs.cmu.edu/tools/ for more information

The (fixed) discount mass is 0.5. The backoffs are computed using the ratio method.
This model based on a corpus of 11 sentences and 32 words

\data\
ngram 1=32
ngram 2=44
ngram 3=41

\1-grams:
-1.0857 </s> -0.3010
-1.0857 <s> -0.2567
-2.1271 A -0.2978
-2.1271 ANY -0.2978
-2.1271 BE -0.2978
-1.8261 CAN -0.2945
-2.1271 COMING -0.2978
-2.1271 DH -0.2638
-1.6500 DO -0.2845
-2.1271 DOORS -0.2978
-2.1271 EVENTS -0.2978
-2.1271 HAVE -0.2978
-1.6500 HERE -0.2638
-2.1271 HOW -0.2978
-1.8261 I -0.2945
-2.1271 INTERDISCIPLINARY -0.2638
-1.4281 IS -0.2845
-2.1271 KIM -0.2638
-2.1271 LAB -0.2638
-2.1271 MEMBER -0.2638
-2.1271 OPEN -0.2638
-2.1271 SUSAN -0.2638
-2.1271 THESE -0.2978
-2.1271 THINK -0.2978
-2.1271 TO -0.2978
-2.1271 UP -0.2638
-1.5250 WHAT -0.2743
-1.8261 WHERE -0.2845
-2.1271 WHO -0.2978
-2.1271 WORK -0.2912
-2.1271 WORKS -0.2912
-1.8261 YOU -0.2879

\2-grams:
-1.0414 <s> CAN 0.0000
-1.3424 <s> DO -0.1249
-1.3424 <s> HOW 0.0000
-0.7404 <s> WHAT 0.0000
-1.0414 <s> WHERE 0.0000
-1.3424 <s> WHO 0.0000
-0.3010 A MEMBER 0.0000
-0.3010 ANY EVENTS 0.0000
-0.3010 BE A 0.0000
-0.3010 CAN I 0.0000
-0.3010 COMING UP 0.0000
-0.3010 DH </s> -0.3010
-0.7782 DO HERE 0.0000
-0.4771 DO YOU 0.0000
-0.3010 DOORS OPEN 0.0000
-0.3010 EVENTS COMING 0.0000
-0.3010 HAVE ANY 0.0000
-0.3010 HERE </s> -0.3010
-0.3010 HOW TO 0.0000
-0.6021 I BE 0.0000
-0.6021 I WORK 0.0000
-0.3010 INTERDISCIPLINARY </s> -0.3010
-1.0000 IS DH 0.0000
-1.0000 IS INTERDISCIPLINARY 0.0000
-1.0000 IS KIM 0.0000
-1.0000 IS SUSAN 0.0000
-1.0000 IS THINK 0.0000
-0.3010 KIM </s> -0.3010
-0.3010 LAB </s> -0.3010
-0.3010 MEMBER </s> -0.3010
-0.3010 OPEN </s> -0.3010
-0.3010 SUSAN </s> -0.3010
-0.3010 THESE DOORS 0.0000
-0.3010 THINK LAB 0.0000
-0.3010 TO THESE 0.0000
-0.3010 UP </s> -0.3010
-0.9031 WHAT DO -0.1249
-0.4260 WHAT IS -0.1461
-0.3010 WHERE IS -0.2041
-0.3010 WHO WORKS 0.0000
-0.3010 WORK HERE 0.0000
-0.3010 WORKS HERE 0.0000
-0.6021 YOU DO -0.2218
-0.6021 YOU HAVE 0.0000

\3-grams:
-0.3010 <s> CAN I
-0.3010 <s> DO YOU
-0.3010 <s> HOW TO
-0.9031 <s> WHAT DO
-0.4260 <s> WHAT IS
-0.3010 <s> WHERE IS
-0.3010 <s> WHO WORKS
-0.3010 A MEMBER </s>
-0.3010 ANY EVENTS COMING
-0.3010 BE A MEMBER
-0.6021 CAN I BE
-0.6021 CAN I WORK
-0.3010 COMING UP </s>
-0.3010 DO HERE </s>
-0.6021 DO YOU DO
-0.6021 DO YOU HAVE
-0.3010 DOORS OPEN </s>
-0.3010 EVENTS COMING UP
-0.3010 HAVE ANY EVENTS
-0.3010 HOW TO THESE
-0.3010 I BE A
-0.3010 I WORK HERE
-0.3010 IS DH </s>
-0.3010 IS INTERDISCIPLINARY </s>
-0.3010 IS KIM </s>
-0.3010 IS SUSAN </s>
-0.3010 IS THINK LAB
-0.3010 THESE DOORS OPEN
-0.3010 THINK LAB </s>
-0.3010 TO THESE DOORS
-0.3010 WHAT DO YOU
-0.7782 WHAT IS DH
-0.7782 WHAT IS INTERDISCIPLINARY
-0.7782 WHAT IS THINK
-0.6021 WHERE IS KIM
-0.6021 WHERE IS SUSAN
-0.3010 WHO WORKS HERE
-0.3010 WORK HERE </s>
-0.3010 WORKS HERE </s>
-0.3010 YOU DO HERE
-0.3010 YOU HAVE ANY

\end\
